{
    "chkp_100": {
        "gradients_info": {
            "network.0.weight": [
                3.8289719668682665e-05,
                -1.287710438191425e-05,
                1.2332624464761466e-05,
                -6.9650423029088415e-06,
                1.3175105777918361e-05,
                -1.2797582712664735e-05,
                3.520967311487766e-06,
                2.2646638626611093e-06,
                -6.813875188527163e-07,
                1.6460742699564435e-05,
                -0.00020435728947632015,
                -5.425975473372091e-07,
                -7.2866573646024335e-06,
                -1.8965274648508057e-05,
                -5.169813448446803e-06,
                -6.2061426433501765e-06,
                -1.3470514204527717e-05,
                -3.0080826036282815e-05,
                7.306755378522212e-06,
                4.78918882436119e-05,
                8.607764812040841e-07,
                -1.2347030633463874e-06,
                4.360819730209187e-06,
                -5.3277763072401285e-06,
                -1.6031221093726344e-05,
                4.5166793825046625e-06,
                1.0637137165758759e-05,
                5.297086318023503e-06,
                2.28230346692726e-05,
                5.232102921581827e-05,
                3.336343797855079e-05,
                -1.3133679203747306e-05,
                4.3159006963833235e-06,
                1.749787224980537e-05,
                5.109522476232087e-07,
                -9.325233804702293e-06,
                -3.348990958329523e-06,
                -2.533059159759432e-06,
                -3.6131677916273475e-07,
                1.0672875760064926e-05,
                -0.00010019254841608927,
                3.083848923779442e-06,
                1.6764244037403842e-07,
                -1.7351590031466912e-06,
                2.406006842647912e-07,
                -7.166835871430521e-07,
                -2.2908115833962517e-13,
                1.1479600289021619e-05,
                5.568339815908985e-07,
                5.884861366212135e-06,
                1.7788444893085398e-05,
                -9.055639384314418e-05,
                2.1996202637097895e-09,
                2.2441796318162233e-05,
                4.7666017053416e-06,
                3.587495100987326e-08,
                -1.1890267614944605e-06,
                -4.786703811987536e-06,
                -9.891241471715606e-13,
                -1.817343445509323e-06,
                2.1482157990249107e-06,
                -1.8730413842149574e-07,
                2.675571693089296e-07,
                -1.785536551324185e-05,
                5.057736871094676e-06,
                -2.4469252934977703e-07,
                -1.4976103557273746e-07,
                2.2578467905987054e-05,
                5.676552973454818e-05,
                -5.705165051494987e-08,
                -1.1248091595916776e-06,
                9.236946141299995e-08,
                1.24382927424449e-06,
                -3.749851748580113e-05,
                3.226455737603828e-05,
                -1.6212819900829345e-05,
                4.681388077187876e-07,
                5.738965774071403e-05,
                -4.6121675723043154e-07,
                -3.170459967805073e-05,
                5.86911106381649e-08,
                1.0209856782239513e-07,
                4.164913480053656e-05,
                6.94443877402584e-11,
                -0.0001642017305130139,
                -1.5176139511741127e-10,
                -2.0633849544537952e-06,
                4.387850895343562e-14,
                8.76953620831955e-09,
                1.1776546671171673e-06,
                2.5460149117861874e-05,
                2.3011498342384584e-06,
                -4.546702257357538e-05,
                1.4037686811574357e-11,
                -2.926155673321773e-07,
                1.4855285144221853e-06,
                3.4892414343045894e-14,
                -0.00015882737352512777,
                -9.07983803699608e-07,
                2.418687743332417e-19
            ],
            "network.0.bias": [
                1.77280412572145e-12,
                8.88379872776568e-06,
                9.69628817983903e-05,
                -9.93565481621772e-05,
                -6.361361738527194e-05,
                2.3321869946357765e-07,
                9.750636672833934e-05,
                2.669781679287553e-05,
                -1.2784425052814186e-05,
                7.951717270771042e-05,
                -0.00023002625675871968,
                2.247973134217318e-05,
                -5.3135495363676455e-06,
                -3.4103228244930506e-05,
                4.152915789745748e-05,
                5.600423537543975e-05,
                -5.902134580537677e-05,
                -4.1853509173961356e-05,
                7.945380639284849e-05,
                0.00026975953369401395,
                0.0001267063053091988,
                -2.6267864086548798e-05,
                3.90751265513245e-05,
                -8.597056876169518e-05,
                -0.00015877386613283306,
                -0.00034862503525801003,
                8.409700967604294e-05,
                5.008674179407535e-06,
                -1.729485461510194e-06,
                0.00018400645058136433,
                0.000476125132991001,
                -6.488328654086217e-05,
                1.4650532648374792e-05,
                4.0530994738219306e-05,
                2.5055191144929267e-05,
                -0.00012091745884390548,
                -5.788829366792925e-05,
                4.12187591791735e-06,
                -2.977758413180709e-06,
                0.00010927661060122773,
                -0.000349033041857183,
                4.761081436299719e-05,
                4.66052051706356e-06,
                -7.686590106459334e-05,
                5.143616817804286e-06,
                -6.252863840927603e-06,
                -1.861242280090658e-12,
                0.00013587593275588006,
                0.0002791421429719776,
                3.659754656837322e-05,
                0.00014132917567621917,
                -0.0002623240288812667,
                2.5541115178384644e-07,
                0.00011174840619787574,
                -3.6950903449906036e-05,
                2.2185690795595292e-07,
                4.516796980169602e-05,
                -8.868169061315712e-06,
                -5.110765868669709e-13,
                -1.2871452781837434e-05,
                7.64382457418833e-06,
                -1.0469834705872927e-06,
                2.2097744931670604e-06,
                -3.107874726993032e-05,
                5.381476512411609e-06,
                -7.025490776868537e-05,
                -1.100757799576968e-06,
                -0.0002183074684580788,
                -0.00030668312683701515,
                -1.9443154997134116e-07,
                -1.0284124982717913e-05,
                1.1442007235018536e-06,
                1.338072161161108e-05,
                0.0003570159897208214,
                -0.0004074797034263611,
                -0.0002553102094680071,
                2.0113338905503042e-05,
                0.00020820186182390898,
                -4.29135752710863e-06,
                -0.0001854290021583438,
                3.3987785741373955e-07,
                5.722731293644756e-05,
                0.00021543580805882812,
                3.870672948824705e-10,
                -0.0003856299736071378,
                -1.0405601935659092e-09,
                1.3155105989426374e-05,
                -1.3884093527649632e-12,
                7.067431795348966e-08,
                0.00015837943647056818,
                4.3850199290318415e-05,
                -8.830113802105188e-05,
                -0.0005081805866211653,
                1.1666577426350244e-10,
                -8.360801984963473e-06,
                2.0537394448183477e-05,
                -1.4694943395801574e-12,
                -0.0011680560419335961,
                -1.0087077498610597e-05,
                5.184070931662118e-17
            ],
            "network.1.weight": [
                -0.00013279991981107742,
                -0.00026983441784977913,
                6.252765888348222e-05,
                -0.0001982204121304676,
                7.988130528246984e-05,
                0.00010584471601760015,
                -6.34065581834875e-05,
                0.00013952930748928338,
                0.00024277444754261523,
                -7.488534902222455e-05,
                0.0005317076575011015,
                -0.0002751616120804101,
                -0.00017581119027454406,
                2.1783527699881233e-05,
                8.051931945374236e-05,
                -4.038480983581394e-05,
                -0.00014392675075214356,
                -0.00019537001207936555,
                -0.00021576932340394706,
                -0.00032882438972592354,
                0.0007298464770428836,
                0.0001294939429499209,
                0.00013337351265363395,
                -0.0002256442530779168,
                -9.97117876977427e-06,
                -0.0002266866504214704,
                0.00020261667668819427,
                -8.490475011058152e-05,
                0.0004052447620779276,
                0.0004092085000593215,
                -0.00013724785821978003,
                -0.00020271512039471418,
                0.0001855877198977396,
                -0.0002361240767640993,
                0.0001487688859924674,
                -5.121605863678269e-05,
                -0.0001680207933532074,
                -5.796618643216789e-05,
                6.538041634485126e-05,
                0.0004485035315155983,
                -0.00018059917783830315,
                0.00013182568363845348,
                -1.2737808901874814e-05,
                -0.00029125899891369045,
                -3.495590135571547e-05,
                -1.788094414223451e-05,
                4.051641400854011e-12,
                -0.0001881408243207261,
                0.0005194081459194422,
                0.00016236052033491433,
                0.00019741423602681607,
                0.00040630053263157606,
                1.2813171679226798e-06,
                -0.00023871660232543945,
                -0.0007737064734101295,
                -1.236808429894154e-06,
                7.522571104345843e-05,
                -7.243396248668432e-05,
                4.446188642953652e-12,
                -2.5709707188070752e-05,
                -1.5765044736326672e-05,
                -2.922611429312383e-06,
                -8.978705409390386e-06,
                0.0005973646184429526,
                -0.0002646234061103314,
                -0.000414377631386742,
                4.3686566641554236e-05,
                0.0007036766037344933,
                0.0014573195949196815,
                -6.190405770212237e-07,
                6.370776827679947e-05,
                -1.3348626453080215e-06,
                -0.0001360718597425148,
                0.00039763018139638007,
                -0.000787221419159323,
                -0.00019676174269989133,
                3.143907088087872e-05,
                1.3241544365882874e-05,
                -3.0203023925423622e-05,
                0.00028492973069660366,
                1.938245077326428e-06,
                7.168576121330261e-05,
                0.0007355815614573658,
                -5.98960048225905e-10,
                0.0010914342710748315,
                2.30833308023648e-09,
                1.5873327356530353e-05,
                1.4295461515934083e-12,
                -1.317953177704112e-07,
                -7.940465729916468e-05,
                0.00042305211536586285,
                0.0008786258404143155,
                -0.00028492280398495495,
                -1.834154633728602e-10,
                -2.240208959847223e-05,
                2.2516675016959198e-05,
                8.342919237402935e-12,
                0.00010583608673186973,
                -2.0159854102530517e-05,
                5.893872960932646e-17
            ],
            "network.1.bias": [
                -1.3205503819335718e-05,
                -8.947923925006762e-05,
                0.0001416441664332524,
                -0.0001755820558173582,
                -8.534910011803731e-05,
                0.00014901351823937148,
                -8.331250865012407e-05,
                4.725910912384279e-05,
                -2.5545230528223328e-05,
                0.00017866854614112526,
                1.2930782986586564e-06,
                0.00021128849766682833,
                0.00014390185242518783,
                8.489086758345366e-05,
                -4.70224731543567e-05,
                -8.359081220987719e-06,
                -0.00023612954828422517,
                -0.0001066396725946106,
                0.00011099443509010598,
                7.636546069988981e-05,
                0.00012846835306845605,
                -7.783741602906957e-05,
                7.092879968695343e-05,
                -0.00013670690532308072,
                0.00013019332254771143,
                -0.0004108355788048357,
                -1.505880732111109e-06,
                2.4796469006105326e-05,
                -0.0002712772402446717,
                0.00013910664711147547,
                0.00012967937800567597,
                -1.3108176062814891e-05,
                9.383571887155995e-05,
                8.650857489556074e-05,
                0.0002049654140137136,
                -8.342498767888173e-05,
                -6.577088061021641e-05,
                2.909676550189033e-05,
                1.1444314623076934e-05,
                0.00027235463494434953,
                -0.0003540896868798882,
                2.7745874831452966e-05,
                -1.93559890249162e-06,
                -1.4852436834189575e-05,
                -2.1178420865908265e-05,
                -4.017223545815796e-06,
                -5.210764003442392e-13,
                9.562247578287497e-05,
                0.0002850174205377698,
                -2.383719402132556e-05,
                0.00017841732187662274,
                8.620100561529398e-05,
                1.1285953860351583e-07,
                -9.134549327427521e-05,
                -0.00033041718415915966,
                -1.2641062596685515e-07,
                -2.2803194951848127e-05,
                8.599347347626463e-05,
                -1.1959895747370997e-11,
                -1.753510150592774e-05,
                -1.2843780723414966e-06,
                -1.2531622815004084e-06,
                -8.862337494974781e-07,
                0.00010116260818904266,
                -2.8909977118019015e-05,
                5.20475696248468e-05,
                9.561124898027629e-06,
                -0.00019995402544736862,
                0.0003495723649393767,
                -2.2035375479845243e-07,
                -4.2682921048253775e-05,
                2.804664291033987e-06,
                -2.1237434339127503e-05,
                1.8813860151567496e-05,
                -0.00025485464720986784,
                -1.3240734006103594e-05,
                1.3603473234979901e-05,
                0.0001727822091197595,
                -7.344890764215961e-05,
                -0.00025685084983706474,
                5.606788704426435e-07,
                2.5123003069893457e-05,
                5.11392681801226e-05,
                2.4027971279316773e-10,
                -0.00013430324906948954,
                2.1064134880788288e-09,
                2.0768063677678583e-06,
                3.245060199285471e-13,
                2.387917241719606e-08,
                5.2046689233975485e-05,
                0.00022526019893120974,
                0.00047630976769141853,
                -0.000262709945673123,
                3.861193309528943e-11,
                -8.20529749034904e-06,
                1.902938493003603e-05,
                6.548504685559287e-13,
                -0.00042159369331784546,
                -2.9391151201707544e-06,
                4.1105122575544557e-17
            ],
            "network.4.weight": [
                3.6218100740725845e-10,
                -2.5870072750677764e-10,
                2.9103830456733704e-11,
                -1.1641532182693481e-10,
                2.5870071709843678e-11,
                -2.1666185512358993e-10,
                1.4875291276528202e-10,
                -2.5870071709843678e-11,
                -7.761021686425451e-11,
                8.407773088858761e-11,
                -2.0696057367874943e-10,
                -7.761021686425451e-11,
                -1.6168794081394822e-10,
                1.2935035854921839e-11,
                2.7163574167765603e-10,
                8.407773088858761e-11,
                -5.1740143419687357e-11,
                -4.1392114735749885e-10,
                1.6168794081394822e-10,
                1.5522043372850902e-10,
                2.8457078360411003e-10,
                -4.5272625925907306e-11,
                6.144142139508091e-11,
                -3.8805108432127255e-11,
                1.2288284279016182e-10,
                -6.467518187669441e-11,
                6.4675179274609196e-12,
                -2.5870071709843678e-11,
                -5.1740143419687357e-11,
                -1.5522043372850902e-10,
                -2.5870071709843678e-11,
                -4.5272625925907306e-11,
                -1.1641532182693481e-10,
                6.467518187669441e-11,
                -5.1740143419687357e-11,
                6.710049876845758e-11,
                7.599333662344776e-11,
                1.1722375847789124e-10,
                -6.144142139508091e-11,
                1.2935036375338882e-10,
                6.467518187669441e-11,
                -2.2636312962953653e-11,
                -3.415658034189306e-11,
                -2.5870071709843678e-11,
                3.2337590938347205e-11,
                7.033425925007109e-11,
                2.11001858346771e-11,
                1.5522043372850902e-10,
                -2.0696057367874943e-10,
                1.7138922225878872e-10,
                1.1641532182693481e-10,
                7.761021686425451e-11,
                -4.345363652236145e-11,
                7.761021686425451e-11,
                -5.1740143419687357e-11,
                -4.0118821459378395e-11,
                2.0372681319713593e-10,
                1.4228539180205502e-10,
                9.861425044610517e-12,
                1.9806774276265315e-11,
                1.8109050370362922e-10,
                -5.386229656734187e-11,
                -4.345363652236145e-11,
                -1.2935036375338882e-10,
                2.0696057367874943e-10,
                -1.0348028683937471e-10,
                -2.1666185512358993e-10,
                -1.0348028683937471e-10,
                7.761021686425451e-11,
                5.3483342754567786e-11,
                -4.5272625925907306e-11,
                1.641132646446053e-10,
                1.1318156481476827e-11,
                1.0348028683937471e-10,
                -2.5870071709843678e-11,
                -5.1740143419687357e-11,
                1.2692503992273174e-10,
                2.5870071709843678e-11,
                -5.4973900431853906e-11,
                4.5272625925907306e-11,
                3.06196561161709e-11,
                -6.4675179274609196e-12,
                5.1740143419687357e-11,
                -3.368215706345268e-10,
                2.0696057367874943e-10,
                4.224018704257482e-11,
                3.3954467709707004e-11,
                -1.30470666822452e-12,
                -7.075742769480087e-11,
                3.5571348644403145e-10,
                -3.6218100740725845e-10,
                -2.0696057367874943e-10,
                -5.1740143419687357e-11,
                1.2971115848081638e-10,
                1.0994780086370781e-10,
                -1.0267184324952439e-10,
                9.795417948987861e-12,
                -5.1740143419687357e-11,
                -2.0372681319713593e-10,
                9.381322009993374e-17
            ],
            "network.4.bias": [
                0.0,
                -4.656612873077393e-10,
                -1.5522043372850902e-10,
                -7.761021270091817e-10,
                1.5522043372850902e-10,
                -1.0089328261742025e-09,
                1.1059455573558807e-09,
                -1.5522043372850902e-10,
                -6.208817349140361e-10,
                -1.9402554216063628e-11,
                3.1044086745701804e-10,
                1.5522043372850902e-10,
                -1.4163864525684744e-09,
                3.1044086745701804e-10,
                2.017865652348405e-09,
                1.9402553175229542e-10,
                -7.761021270091817e-10,
                -1.3969838619232178e-09,
                1.2417634698280722e-09,
                6.208817349140361e-10,
                7.761021270091817e-10,
                -2.7163574167765603e-10,
                2.3283064365386963e-10,
                -3.1044086745701804e-10,
                1.2150849215686321e-09,
                -3.1044086745701804e-10,
                1.5522043372850902e-10,
                -2.3283064365386963e-10,
                -6.208817349140361e-10,
                0.0,
                -6.208817349140361e-10,
                2.3283064365386963e-10,
                -7.761021686425451e-11,
                2.5223320654355064e-10,
                -2.8133703700028434e-10,
                3.6864852837048545e-10,
                2.3283064365386963e-10,
                5.820766091346741e-10,
                5.820766091346741e-11,
                9.313225746154785e-10,
                7.761021686425451e-11,
                7.761021686425451e-11,
                -3.8805108432127255e-11,
                -1.5522043372850902e-10,
                2.7163574167765603e-10,
                2.3283064365386963e-10,
                4.329602301678115e-11,
                6.208817349140361e-10,
                -4.656612873077393e-10,
                1.5290169130821596e-10,
                3.1044086745701804e-10,
                2.8133703700028434e-10,
                -2.6284396881237626e-10,
                2.425319112209223e-10,
                -1.5522043372850902e-10,
                -1.9766351055938713e-10,
                3.8822159376117327e-10,
                1.5522043372850902e-10,
                6.719644285446691e-11,
                2.425319112209223e-10,
                1.9160022179942615e-10,
                -1.6189005691558123e-10,
                -3.6364505157093774e-11,
                -1.3581787083882801e-10,
                -8.36735125631094e-11,
                -4.12304274055586e-10,
                -9.701276587614771e-11,
                -3.1044086745701804e-10,
                1.5522043372850902e-10,
                8.640199666842818e-11,
                -3.8805108432127255e-11,
                5.002220859751105e-10,
                9.701277108031814e-12,
                3.1044086745701804e-10,
                -7.761021686425451e-11,
                -4.577789883275507e-11,
                -1.9402554216063628e-11,
                1.1641532182693481e-10,
                -1.2896350654045818e-10,
                1.673470251262188e-10,
                -1.5764575408971915e-11,
                1.9402554216063628e-11,
                0.0,
                -3.5502392692343676e-10,
                0.0,
                8.662107836565625e-11,
                4.608106604631068e-11,
                -3.6668142480711374e-12,
                -8.96890617330115e-11,
                4.4625872441805825e-10,
                -3.4924596548080444e-10,
                -1.0020769630747495e-10,
                -7.761021686425451e-11,
                1.6675845426750158e-10,
                1.6007106751203537e-10,
                -3.2014213502407074e-10,
                1.8705054866119397e-11,
                -2.6490151738833845e-10,
                -1.6977234895687587e-10,
                4.673512227409483e-16
            ]
        },
        "train_losses": [
            0.7474619592389753,
            0.7344703668619427,
            0.731837010511788,
            0.7313317623047276,
            0.7299497334048455,
            0.7293580012082199,
            0.7279671939755283,
            0.728353693351381,
            0.7267247201294027,
            0.7296901959814621,
            0.726473991090394,
            0.7265550043420552,
            0.724683089566772,
            0.7249931075666968,
            0.7246142361611306,
            0.724555310097789,
            0.7243644293206282,
            0.7235260134387045,
            0.7231045994849757,
            0.7227066377157806,
            0.7222928817839036,
            0.7232100070591041,
            0.7225729695642579,
            0.7221332980028332,
            0.7226686026887654,
            0.7221894858843394,
            0.7232250386811214,
            0.7218636579126155,
            0.7221278620165024,
            0.7197635791207727,
            0.7194047580910413,
            0.7193640056761647,
            0.7202449700168669,
            0.7219375149038673,
            0.7215652064895401,
            0.7214996242181375,
            0.7212171919172098,
            0.7201127985329896,
            0.7208180045853664,
            0.7196913750368207,
            0.7217761913365646,
            0.7200842533202724,
            0.7222628834142195,
            0.7262518723520897,
            0.7251395113151988,
            0.7235482821470236,
            0.7233615472040439,
            0.7234355098742595,
            0.7216876655496577,
            0.7218086551452053,
            0.7228568186326978,
            0.7221213777147883,
            0.7228657587597163,
            0.7210343063518565,
            0.7227615481921279,
            0.7207493764240397,
            0.724385420196515,
            0.7207970223973729,
            0.721455038021115,
            0.7227774562943936,
            0.7250450806093615,
            0.7263455793991453,
            0.7230831937977917,
            0.7251158264802775,
            0.7232385077641714,
            0.7235896591644561,
            0.7243361520083574,
            0.725222650465857,
            0.7260645790339371,
            0.7282522302944315,
            0.7267639067295489,
            0.7248353854872135,
            0.7236812895913848,
            0.7227205833511399,
            0.7242655929271465,
            0.7245801625998074,
            0.7236516996238964,
            0.7244319403043358,
            0.7241560450733918,
            0.7241165026256831,
            0.7238801297605963,
            0.7217364225051451,
            0.7237885124367198,
            0.7223060122527529,
            0.7241318501451964,
            0.7245754518389275,
            0.7243243002976996,
            0.7263109102186479,
            0.7260247646978963,
            0.7257657492602313,
            0.7251035702840971,
            0.7243987178004914,
            0.7236336899060075,
            0.7243810759650336,
            0.7244143131385995,
            0.7250125151096422,
            0.7233622912295261,
            0.7250937367995295,
            0.7236620380032447,
            0.7240994844670222
        ],
        "val_losses": [
            0.0038478125352412462,
            0.004031069111078978,
            0.0039965189062058926,
            0.003853152273222804,
            0.0040861619636416435,
            0.0038656513206660748,
            0.003786012064665556,
            0.003892327658832073,
            0.003816285403445363,
            0.0039799148216843605,
            0.003969820681959391,
            0.0037562958896160126,
            0.003785276785492897,
            0.003910670522600412,
            0.003866847138851881,
            0.0037279704120010138,
            0.003952751401811838,
            0.003852613503113389,
            0.004038105718791485,
            0.003795938566327095,
            0.003986374009400606,
            0.0040682037360966206,
            0.003933480009436607,
            0.0038049258291721344,
            0.003939800430089235,
            0.0037126049865037203,
            0.004009563475847244,
            0.003831340465694666,
            0.0038347323425114155,
            0.0038391398265957832,
            0.0038469491992145777,
            0.003862985409796238,
            0.003769105765968561,
            0.0037153647281229496,
            0.003887593513354659,
            0.003941820003092289,
            0.003976014442741871,
            0.003830073866993189,
            0.003830359783023596,
            0.003721105633303523,
            0.003952505998313427,
            0.003739258972927928,
            0.00362655078060925,
            0.003580730175599456,
            0.0036155220586806536,
            0.003705498529598117,
            0.004029438365250826,
            0.004338258411735296,
            0.004084933549165726,
            0.0038492463063448668,
            0.0037790576461702585,
            0.003717539133504033,
            0.003958137705922127,
            0.003832033136859536,
            0.003706946736201644,
            0.0038317956496030092,
            0.0038316496647894382,
            0.003824590239673853,
            0.003705178154632449,
            0.003705233335494995,
            0.0035978960804641247,
            0.003831820795312524,
            0.003828047774732113,
            0.003701689187437296,
            0.003958408255130053,
            0.004063816275447607,
            0.0039584157057106495,
            0.004085879307240248,
            0.004088686313480139,
            0.0038318010047078133,
            0.003853356698527932,
            0.003957132343202829,
            0.003954696003347635,
            0.003829497378319502,
            0.0038318010047078133,
            0.0038279187865555286,
            0.0038303618784993887,
            0.003831172827631235,
            0.003721807384863496,
            0.003733298974111676,
            0.003719667438417673,
            0.0037174581084400415,
            0.003854084527119994,
            0.0037573359441012144,
            0.0038318010047078133,
            0.0036273454315960407,
            0.004237423185259104,
            0.0038318017031997442,
            0.0037052996922284365,
            0.0040815845131874084,
            0.00403344351798296,
            0.004083114210516214,
            0.004338311031460762,
            0.0038318010047078133,
            0.00420839199796319,
            0.004338258411735296,
            0.0038318010047078133,
            0.0039584157057106495,
            0.004086126573383808,
            0.0039584157057106495
        ],
        "train_acc": 0.8265561461448669,
        "val_acc": 0.8409090638160706,
        "max_norm": 1.0
    }
}